<?xml version="1.0"?>
<opencv_storage>
<cascade>
  <stageType>BOOST</stageType>
  <featureType>HAAR</featureType>
  <height>24</height>
  <width>24</width>
  <stageParams>
    <boostType>GAB</boostType>
    <minHitRate>9.9500000476837158e-01</minHitRate>
    <maxFalseAlarm>5.0000000000000000e-01</maxFalseAlarm>
    <weightTrimRate>9.4999999999999996e-01</weightTrimRate>
    <maxDepth>1</maxDepth>
    <maxWeakCount>100</maxWeakCount></stageParams>
  <featureParams>
    <maxCatCount>0</maxCatCount>
    <featSize>1</featSize>
    <mode>BASIC</mode></featureParams>
  <stageNum>15</stageNum>
  <stages>
    <!-- stage 0 -->
    <_>
      <maxWeakCount>4</maxWeakCount>
      <stageThreshold>-2.0324766635894775e+00</stageThreshold>
      <weakClassifiers>
        <_>
          <internalNodes>
            0 -1 4 1.1157654225826263e-01</internalNodes>
          <leafValues>
            -9.1929131746292114e-01 3.2432430982589722e-01</leafValues></_>
        <_>
          <internalNodes>
            0 -1 19 2.7108592912554741e-02</internalNodes>
          <leafValues>
            -9.4528204202651978e-01 3.2566839456558228e-01</leafValues></_>
        <_>
          <internalNodes>
            0 -1 43 6.5642014145851135e-02</internalNodes>
          <leafValues>
            -7.7545839548110962e-01 5.7688838243484497e-01</leafValues></_>
        <_>
          <internalNodes>
            0 -1 25 -2.9824867844581604e-02</internalNodes>
          <leafValues>
            6.0755509138107300e-01 -8.5927683115005493e-01</leafValues></_></weakClassifiers></_>
    <!-- stage 1 -->
    <_>
      <maxWeakCount>3</maxWeakCount>
      <stageThreshold>-1.7256948947906494e+00</stageThreshold>
      <weakClassifiers>
        <_>
          <internalNodes>
            0 -1 38 1.1695378459990025e-02</internalNodes>
          <leafValues>
            -9.4532072544097900e-01 -7.9136691987514496e-02</leafValues></_>
        <_>
          <internalNodes>
            0 -1 41 -2.2333141416311264e-02</internalNodes>
          <leafValues>
            2.5610908865928650e-01 -8.6339330673217773e-01</leafValues></_>
        <_>
          <internalNodes>
            0 -1 55 -9.9880564957857132e-03</internalNodes>
          <leafValues>
            4.3393304944038391e-01 -7.8316497802734375e-01</leafValues></_></weakClassifiers></_>
    <!-- stage 2 -->
    <_>
      <maxWeakCount>3</maxWeakCount>
      <stageThreshold>-1.4472514390945435e+00</stageThreshold>
      <weakClassifiers>
        <_>
          <internalNodes>
            0 -1 1 2.2659048438072205e-01</internalNodes>
          <leafValues>
            -9.1059279441833496e-01 4.4262295961380005e-01</leafValues></_>
        <_>
          <internalNodes>
            0 -1 34 7.7090620994567871e-02</internalNodes>
          <leafValues>
            -8.4440881013870239e-01 2.5868424773216248e-01</leafValues></_>
        <_>
          <internalNodes>
            0 -1 13 2.3099917918443680e-02</internalNodes>
          <leafValues>
            -7.9534286260604858e-01 3.9019203186035156e-01</leafValues></_></weakClassifiers></_>
    <!-- stage 3 -->
    <_>
      <maxWeakCount>4</maxWeakCount>
      <stageThreshold>-1.6965756416320801e+00</stageThreshold>
      <weakClassifiers>
        <_>
          <internalNodes>
            0 -1 28 1.6619503498077393e-01</internalNodes>
          <leafValues>
            -9.2727273702621460e-01 7.9999998211860657e-02</leafValues></_>
        <_>
          <internalNodes>
            0 -1 79 -3.7120338529348373e-02</internalNodes>
          <leafValues>
            5.5792343616485596e-01 -7.1078729629516602e-01</leafValues></_>
        <_>
          <internalNodes>
            0 -1 17 1.1436264961957932e-02</internalNodes>
          <leafValues>
            -5.7810103893280029e-01 4.3033924698829651e-01</leafValues></_>
        <_>
          <internalNodes>
            0 -1 67 1.1767910793423653e-02</internalNodes>
          <leafValues>
            -4.7576570510864258e-01 5.1958537101745605e-01</leafValues></_></weakClassifiers></_>
    <!-- stage 4 -->
    <_>
      <maxWeakCount>5</maxWeakCount>
      <stageThreshold>-1.5841267108917236e+00</stageThreshold>
      <weakClassifiers>
        <_>
          <internalNodes>
            0 -1 73 -5.4739076644182205e-02</internalNodes>
          <leafValues>
            -2.2727273404598236e-02 -9.0618765354156494e-01</leafValues></_>
        <_>
          <internalNodes>
            0 -1 9 6.9426625967025757e-02</internalNodes>
          <leafValues>
            -6.2775015830993652e-01 5.0434505939483643e-01</leafValues></_>
        <_>
          <internalNodes>
            0 -1 48 4.7289067879319191e-03</internalNodes>
          <leafValues>
            -8.1183242797851563e-01 2.0435979962348938e-01</leafValues></_>
        <_>
          <internalNodes>
            0 -1 57 -9.3210174236446619e-04</internalNodes>
          <leafValues>
            -8.5013175010681152e-01 2.1539443731307983e-01</leafValues></_>
        <_>
          <internalNodes>
            0 -1 64 -2.5675639510154724e-02</internalNodes>
          <leafValues>
            6.9912070035934448e-01 -3.3721125125885010e-01</leafValues></_></weakClassifiers></_>
    <!-- stage 5 -->
    <_>
      <maxWeakCount>5</maxWeakCount>
      <stageThreshold>-1.6857748031616211e+00</stageThreshold>
      <weakClassifiers>
        <_>
          <internalNodes>
            0 -1 76 -8.5766747593879700e-02</internalNodes>
          <leafValues>
            -2.1367521584033966e-01 -9.0955805778503418e-01</leafValues></_>
        <_>
          <internalNodes>
            0 -1 68 -3.5855963826179504e-02</internalNodes>
          <leafValues>
            3.0440328642725945e-02 -7.9127436876296997e-01</leafValues></_>
        <_>
          <internalNodes>
            0 -1 37 9.1126691550016403e-03</internalNodes>
          <leafValues>
            -5.4994285106658936e-01 2.7884209156036377e-01</leafValues></_>
        <_>
          <internalNodes>
            0 -1 7 2.2088412195444107e-02</internalNodes>
          <leafValues>
            -4.8570179939270020e-01 3.8040518760681152e-01</leafValues></_>
        <_>
          <internalNodes>
            0 -1 0 1.1906311847269535e-03</internalNodes>
          <leafValues>
            -5.8891355991363525e-01 3.5481935739517212e-01</leafValues></_></weakClassifiers></_>
    <!-- stage 6 -->
    <_>
      <maxWeakCount>6</maxWeakCount>
      <stageThreshold>-1.8040021657943726e+00</stageThreshold>
      <weakClassifiers>
        <_>
          <internalNodes>
            0 -1 27 3.7891149520874023e-02</internalNodes>
          <leafValues>
            -8.8223940134048462e-01 7.4074074625968933e-02</leafValues></_>
        <_>
          <internalNodes>
            0 -1 18 1.4210270717740059e-02</internalNodes>
          <leafValues>
            -6.5148061513900757e-01 2.7172014117240906e-01</leafValues></_>
        <_>
          <internalNodes>
            0 -1 78 -5.2938034059479833e-04</internalNodes>
          <leafValues>
            2.7802217006683350e-01 -7.0933079719543457e-01</leafValues></_>
        <_>
          <internalNodes>
            0 -1 47 -2.0080719143152237e-02</internalNodes>
          <leafValues>
            2.6161453127861023e-01 -8.6943131685256958e-01</leafValues></_>
        <_>
          <internalNodes>
            0 -1 71 -2.3423561360687017e-03</internalNodes>
          <leafValues>
            5.2765071392059326e-01 -4.2809540033340454e-01</leafValues></_>
        <_>
          <internalNodes>
            0 -1 80 -1.8609503749758005e-03</internalNodes>
          <leafValues>
            6.0552948713302612e-01 -3.2361298799514771e-01</leafValues></_></weakClassifiers></_>
    <!-- stage 7 -->
    <_>
      <maxWeakCount>7</maxWeakCount>
      <stageThreshold>-1.9522993564605713e+00</stageThreshold>
      <weakClassifiers>
        <_>
          <internalNodes>
            0 -1 16 1.4006006717681885e-01</internalNodes>
          <leafValues>
            -8.7152445316314697e-01 -2.1276595070958138e-02</leafValues></_>
        <_>
          <internalNodes>
            0 -1 22 6.4820800907909870e-03</internalNodes>
          <leafValues>
            -7.7431070804595947e-01 -5.1337178796529770e-02</leafValues></_>
        <_>
          <internalNodes>
            0 -1 32 1.0304357856512070e-02</internalNodes>
          <leafValues>
            -5.2644956111907959e-01 3.3856850862503052e-01</leafValues></_>
        <_>
          <internalNodes>
            0 -1 44 6.0823922976851463e-03</internalNodes>
          <leafValues>
            -5.9261935949325562e-01 3.0810371041297913e-01</leafValues></_>
        <_>
          <internalNodes>
            0 -1 87 -5.7395093608647585e-04</internalNodes>
          <leafValues>
            -1. 1.8540294468402863e-01</leafValues></_>
        <_>
          <internalNodes>
            0 -1 74 -3.2400792406406254e-05</internalNodes>
          <leafValues>
            2.2360531985759735e-01 -5.9072250127792358e-01</leafValues></_>
        <_>
          <internalNodes>
            0 -1 56 -2.1434645168483257e-03</internalNodes>
          <leafValues>
            3.1720113754272461e-01 -5.5632925033569336e-01</leafValues></_></weakClassifiers></_>
    <!-- stage 8 -->
    <_>
      <maxWeakCount>6</maxWeakCount>
      <stageThreshold>-1.6810085773468018e+00</stageThreshold>
      <weakClassifiers>
        <_>
          <internalNodes>
            0 -1 86 -8.5711311548948288e-03</internalNodes>
          <leafValues>
            -2.8070175647735596e-01 -8.9959013462066650e-01</leafValues></_>
        <_>
          <internalNodes>
            0 -1 11 1.0709967464208603e-02</internalNodes>
          <leafValues>
            -6.7597061395645142e-01 1.1321238428354263e-01</leafValues></_>
        <_>
          <internalNodes>
            0 -1 53 -4.7357499599456787e-02</internalNodes>
          <leafValues>
            -8.8084578514099121e-01 9.3366622924804688e-02</leafValues></_>
        <_>
          <internalNodes>
            0 -1 62 -1.4617452397942543e-03</internalNodes>
          <leafValues>
            -8.8715845346450806e-01 1.8897853791713715e-01</leafValues></_>
        <_>
          <internalNodes>
            0 -1 81 -4.7940723598003387e-03</internalNodes>
          <leafValues>
            3.3397728204727173e-01 -4.7023913264274597e-01</leafValues></_>
        <_>
          <internalNodes>
            0 -1 45 -1.0022994130849838e-02</internalNodes>
          <leafValues>
            3.5436671972274780e-01 -4.6961462497711182e-01</leafValues></_></weakClassifiers></_>
    <!-- stage 9 -->
    <_>
      <maxWeakCount>7</maxWeakCount>
      <stageThreshold>-1.7384648323059082e+00</stageThreshold>
      <weakClassifiers>
        <_>
          <internalNodes>
            0 -1 42 2.6605462655425072e-02</internalNodes>
          <leafValues>
            -8.8039213418960571e-01 -1.7142857611179352e-01</leafValues></_>
        <_>
          <internalNodes>
            0 -1 85 -9.2511679977178574e-03</internalNodes>
          <leafValues>
            3.0919891595840454e-01 -6.0544270277023315e-01</leafValues></_>
        <_>
          <internalNodes>
            0 -1 75 -2.0858983043581247e-03</internalNodes>
          <leafValues>
            -9.7827547788619995e-01 9.9519655108451843e-02</leafValues></_>
        <_>
          <internalNodes>
            0 -1 10 -9.8826773464679718e-03</internalNodes>
          <leafValues>
            3.5812124609947205e-01 -4.0310072898864746e-01</leafValues></_>
        <_>
          <internalNodes>
            0 -1 70 -3.4016527933999896e-04</internalNodes>
          <leafValues>
            -8.0789953470230103e-01 1.6593407094478607e-01</leafValues></_>
        <_>
          <internalNodes>
            0 -1 36 3.4426269121468067e-04</internalNodes>
          <leafValues>
            -5.8812713623046875e-01 2.1446785330772400e-01</leafValues></_>
        <_>
          <internalNodes>
            0 -1 63 7.8359413892030716e-03</internalNodes>
          <leafValues>
            -2.8807777166366577e-01 5.4448074102401733e-01</leafValues></_></weakClassifiers></_>
    <!-- stage 10 -->
    <_>
      <maxWeakCount>8</maxWeakCount>
      <stageThreshold>-1.6335126161575317e+00</stageThreshold>
      <weakClassifiers>
        <_>
          <internalNodes>
            0 -1 60 2.4003539234399796e-02</internalNodes>
          <leafValues>
            -8.6834460496902466e-01 -2.2807016968727112e-01</leafValues></_>
        <_>
          <internalNodes>
            0 -1 66 6.5866729710251093e-04</internalNodes>
          <leafValues>
            -6.5382492542266846e-01 6.6410057246685028e-02</leafValues></_>
        <_>
          <internalNodes>
            0 -1 14 -6.4985649660229683e-03</internalNodes>
          <leafValues>
            3.9394193887710571e-01 -3.6340978741645813e-01</leafValues></_>
        <_>
          <internalNodes>
            0 -1 29 7.4992984533309937e-02</internalNodes>
          <leafValues>
            -7.5392752885818481e-01 1.6710646450519562e-01</leafValues></_>
        <_>
          <internalNodes>
            0 -1 69 -3.2440616632811725e-04</internalNodes>
          <leafValues>
            -7.0496940612792969e-01 1.9515872001647949e-01</leafValues></_>
        <_>
          <internalNodes>
            0 -1 20 -2.5254998356103897e-02</internalNodes>
          <leafValues>
            -7.8100007772445679e-01 1.4980733394622803e-01</leafValues></_>
        <_>
          <internalNodes>
            0 -1 31 -8.2816388458013535e-03</internalNodes>
          <leafValues>
            2.7064847946166992e-01 -5.1578587293624878e-01</leafValues></_>
        <_>
          <internalNodes>
            0 -1 15 -8.9802127331495285e-03</internalNodes>
          <leafValues>
            5.9362816810607910e-01 -3.2985526323318481e-01</leafValues></_></weakClassifiers></_>
    <!-- stage 11 -->
    <_>
      <maxWeakCount>7</maxWeakCount>
      <stageThreshold>-1.8314055204391479e+00</stageThreshold>
      <weakClassifiers>
        <_>
          <internalNodes>
            0 -1 23 7.5424909591674805e-02</internalNodes>
          <leafValues>
            -9.1596639156341553e-01 -5.7198441028594971e-01</leafValues></_>
        <_>
          <internalNodes>
            0 -1 40 5.1829405128955841e-02</internalNodes>
          <leafValues>
            -5.5469226837158203e-01 2.1535730361938477e-01</leafValues></_>
        <_>
          <internalNodes>
            0 -1 61 -1.9506573444232345e-03</internalNodes>
          <leafValues>
            -1. 7.4054256081581116e-02</leafValues></_>
        <_>
          <internalNodes>
            0 -1 58 7.9810764873400331e-05</internalNodes>
          <leafValues>
            -2.8629791736602783e-01 4.1505864262580872e-01</leafValues></_>
        <_>
          <internalNodes>
            0 -1 26 1.8956527113914490e-02</internalNodes>
          <leafValues>
            1.7399434745311737e-01 -7.6019829511642456e-01</leafValues></_>
        <_>
          <internalNodes>
            0 -1 8 1.4555782079696655e-02</internalNodes>
          <leafValues>
            -3.7627169489860535e-01 3.9880755543708801e-01</leafValues></_>
        <_>
          <internalNodes>
            0 -1 54 -1.1501183733344078e-02</internalNodes>
          <leafValues>
            -7.2130513191223145e-01 1.7453125119209290e-01</leafValues></_></weakClassifiers></_>
    <!-- stage 12 -->
    <_>
      <maxWeakCount>8</maxWeakCount>
      <stageThreshold>-1.7021619081497192e+00</stageThreshold>
      <weakClassifiers>
        <_>
          <internalNodes>
            0 -1 72 -4.0895611047744751e-02</internalNodes>
          <leafValues>
            -3.6956521868705750e-01 -8.7775552272796631e-01</leafValues></_>
        <_>
          <internalNodes>
            0 -1 6 6.8313412368297577e-02</internalNodes>
          <leafValues>
            -6.2477552890777588e-01 3.3287983387708664e-02</leafValues></_>
        <_>
          <internalNodes>
            0 -1 82 1.7437266185879707e-02</internalNodes>
          <leafValues>
            -3.8651993870735168e-01 3.0787813663482666e-01</leafValues></_>
        <_>
          <internalNodes>
            0 -1 51 1.4616595581173897e-03</internalNodes>
          <leafValues>
            1.3005749881267548e-01 -8.8961416482925415e-01</leafValues></_>
        <_>
          <internalNodes>
            0 -1 39 -1.3501564972102642e-03</internalNodes>
          <leafValues>
            3.2574027776718140e-01 -3.5577282309532166e-01</leafValues></_>
        <_>
          <internalNodes>
            0 -1 46 -1.1141519062221050e-02</internalNodes>
          <leafValues>
            4.6393427252769470e-01 -2.5928741693496704e-01</leafValues></_>
        <_>
          <internalNodes>
            0 -1 30 1.5131791122257710e-02</internalNodes>
          <leafValues>
            -2.1131262183189392e-01 6.2922650575637817e-01</leafValues></_>
        <_>
          <internalNodes>
            0 -1 5 -2.3631840012967587e-03</internalNodes>
          <leafValues>
            -8.4853827953338623e-01 2.0169128477573395e-01</leafValues></_></weakClassifiers></_>
    <!-- stage 13 -->
    <_>
      <maxWeakCount>8</maxWeakCount>
      <stageThreshold>-1.5868495702743530e+00</stageThreshold>
      <weakClassifiers>
        <_>
          <internalNodes>
            0 -1 2 8.8596776127815247e-02</internalNodes>
          <leafValues>
            -9.0703219175338745e-01 -5.9362548589706421e-01</leafValues></_>
        <_>
          <internalNodes>
            0 -1 21 3.9857182651758194e-02</internalNodes>
          <leafValues>
            -5.8523774147033691e-01 8.5284747183322906e-02</leafValues></_>
        <_>
          <internalNodes>
            0 -1 65 -1.1521445121616125e-03</internalNodes>
          <leafValues>
            -8.7034451961517334e-01 9.8366521298885345e-02</leafValues></_>
        <_>
          <internalNodes>
            0 -1 35 1.1672534048557281e-02</internalNodes>
          <leafValues>
            -5.2981370687484741e-01 2.4047113955020905e-01</leafValues></_>
        <_>
          <internalNodes>
            0 -1 24 2.1120738238096237e-03</internalNodes>
          <leafValues>
            2.1632136404514313e-01 -5.5593103170394897e-01</leafValues></_>
        <_>
          <internalNodes>
            0 -1 12 -3.8006850518286228e-03</internalNodes>
          <leafValues>
            5.1278966665267944e-01 -2.5367972254753113e-01</leafValues></_>
        <_>
          <internalNodes>
            0 -1 50 6.7508318461477757e-03</internalNodes>
          <leafValues>
            -6.2183141708374023e-01 2.1577614545822144e-01</leafValues></_>
        <_>
          <internalNodes>
            0 -1 77 -8.4976491052657366e-04</internalNodes>
          <leafValues>
            3.2553488016128540e-01 -3.8461926579475403e-01</leafValues></_></weakClassifiers></_>
    <!-- stage 14 -->
    <_>
      <maxWeakCount>8</maxWeakCount>
      <stageThreshold>-1.5419803857803345e+00</stageThreshold>
      <weakClassifiers>
        <_>
          <internalNodes>
            0 -1 59 4.0419860742986202e-03</internalNodes>
          <leafValues>
            -8.7002909183502197e-01 -2.2033898532390594e-01</leafValues></_>
        <_>
          <internalNodes>
            0 -1 3 6.7652672529220581e-02</internalNodes>
          <leafValues>
            -6.2239259481430054e-01 -1.2503131292760372e-02</leafValues></_>
        <_>
          <internalNodes>
            0 -1 49 -2.6886553969234228e-03</internalNodes>
          <leafValues>
            -8.7064510583877563e-01 7.0465452969074249e-02</leafValues></_>
        <_>
          <internalNodes>
            0 -1 52 -5.2756212651729584e-02</internalNodes>
          <leafValues>
            -8.3676511049270630e-01 1.3537172973155975e-01</leafValues></_>
        <_>
          <internalNodes>
            0 -1 19 2.7096079662442207e-02</internalNodes>
          <leafValues>
            -6.3305157423019409e-01 1.6154919564723969e-01</leafValues></_>
        <_>
          <internalNodes>
            0 -1 83 4.4097015634179115e-03</internalNodes>
          <leafValues>
            -3.0214989185333252e-01 4.2600575089454651e-01</leafValues></_>
        <_>
          <internalNodes>
            0 -1 84 -1.4261021278798580e-03</internalNodes>
          <leafValues>
            4.6304330229759216e-01 -2.4760293960571289e-01</leafValues></_>
        <_>
          <internalNodes>
            0 -1 33 -1.6855488065630198e-03</internalNodes>
          <leafValues>
            4.6402892470359802e-01 -3.1255355477333069e-01</leafValues></_></weakClassifiers></_></stages>
  <features>
    <_>
      <rects>
        <_>
          0 0 14 2 -1.</_>
        <_>
          0 0 7 1 2.</_>
        <_>
          7 1 7 1 2.</_></rects>
      <tilted>0</tilted></_>
    <_>
      <rects>
        <_>
          0 1 12 21 -1.</_>
        <_>
          6 1 6 21 2.</_></rects>
      <tilted>0</tilted></_>
    <_>
      <rects>
        <_>
          0 2 12 6 -1.</_>
        <_>
          6 2 6 6 2.</_></rects>
      <tilted>0</tilted></_>
    <_>
      <rects>
        <_>
          0 2 14 4 -1.</_>
        <_>
          7 2 7 4 2.</_></rects>
      <tilted>0</tilted></_>
    <_>
      <rects>
        <_>
          0 2 24 3 -1.</_>
        <_>
          8 2 8 3 3.</_></rects>
      <tilted>0</tilted></_>
    <_>
      <rects>
        <_>
          0 3 4 3 -1.</_>
        <_>
          0 4 4 1 3.</_></rects>
      <tilted>0</tilted></_>
    <_>
      <rects>
        <_>
          0 3 12 5 -1.</_>
        <_>
          6 3 6 5 2.</_></rects>
      <tilted>0</tilted></_>
    <_>
      <rects>
        <_>
          0 4 6 12 -1.</_>
        <_>
          3 4 3 12 2.</_></rects>
      <tilted>0</tilted></_>
    <_>
      <rects>
        <_>
          0 4 17 6 -1.</_>
        <_>
          0 6 17 2 3.</_></rects>
      <tilted>0</tilted></_>
    <_>
      <rects>
        <_>
          0 5 6 12 -1.</_>
        <_>
          3 5 3 12 2.</_></rects>
      <tilted>0</tilted></_>
    <_>
      <rects>
        <_>
          0 5 8 6 -1.</_>
        <_>
          0 5 4 3 2.</_>
        <_>
          4 8 4 3 2.</_></rects>
      <tilted>0</tilted></_>
    <_>
      <rects>
        <_>
          0 6 6 2 -1.</_>
        <_>
          3 6 3 2 2.</_></rects>
      <tilted>0</tilted></_>
    <_>
      <rects>
        <_>
          0 8 3 6 -1.</_>
        <_>
          1 8 1 6 3.</_></rects>
      <tilted>0</tilted></_>
    <_>
      <rects>
        <_>
          0 9 19 4 -1.</_>
        <_>
          0 11 19 2 2.</_></rects>
      <tilted>0</tilted></_>
    <_>
      <rects>
        <_>
          0 15 4 8 -1.</_>
        <_>
          0 15 2 4 2.</_>
        <_>
          2 19 2 4 2.</_></rects>
      <tilted>0</tilted></_>
    <_>
      <rects>
        <_>
          0 15 17 3 -1.</_>
        <_>
          0 16 17 1 3.</_></rects>
      <tilted>0</tilted></_>
    <_>
      <rects>
        <_>
          0 20 24 3 -1.</_>
        <_>
          8 20 8 3 3.</_></rects>
      <tilted>0</tilted></_>
    <_>
      <rects>
        <_>
          1 2 6 5 -1.</_>
        <_>
          4 2 3 5 2.</_></rects>
      <tilted>0</tilted></_>
    <_>
      <rects>
        <_>
          1 8 6 8 -1.</_>
        <_>
          1 8 3 4 2.</_>
        <_>
          4 12 3 4 2.</_></rects>
      <tilted>0</tilted></_>
    <_>
      <rects>
        <_>
          1 8 14 6 -1.</_>
        <_>
          1 11 14 3 2.</_></rects>
      <tilted>0</tilted></_>
    <_>
      <rects>
        <_>
          1 14 12 4 -1.</_>
        <_>
          1 16 12 2 2.</_></rects>
      <tilted>0</tilted></_>
    <_>
      <rects>
        <_>
          1 15 8 7 -1.</_>
        <_>
          5 15 4 7 2.</_></rects>
      <tilted>0</tilted></_>
    <_>
      <rects>
        <_>
          2 0 14 2 -1.</_>
        <_>
          2 1 14 1 2.</_></rects>
      <tilted>0</tilted></_>
    <_>
      <rects>
        <_>
          2 1 21 3 -1.</_>
        <_>
          9 1 7 3 3.</_></rects>
      <tilted>0</tilted></_>
    <_>
      <rects>
        <_>
          2 3 9 3 -1.</_>
        <_>
          2 4 9 1 3.</_></rects>
      <tilted>0</tilted></_>
    <_>
      <rects>
        <_>
          2 12 17 8 -1.</_>
        <_>
          2 16 17 4 2.</_></rects>
      <tilted>0</tilted></_>
    <_>
      <rects>
        <_>
          2 18 16 6 -1.</_>
        <_>
          2 21 16 3 2.</_></rects>
      <tilted>0</tilted></_>
    <_>
      <rects>
        <_>
          2 21 21 1 -1.</_>
        <_>
          9 21 7 1 3.</_></rects>
      <tilted>0</tilted></_>
    <_>
      <rects>
        <_>
          3 0 21 8 -1.</_>
        <_>
          10 0 7 8 3.</_></rects>
      <tilted>0</tilted></_>
    <_>
      <rects>
        <_>
          3 6 16 15 -1.</_>
        <_>
          3 11 16 5 3.</_></rects>
      <tilted>0</tilted></_>
    <_>
      <rects>
        <_>
          3 9 15 1 -1.</_>
        <_>
          8 9 5 1 3.</_></rects>
      <tilted>0</tilted></_>
    <_>
      <rects>
        <_>
          3 14 11 9 -1.</_>
        <_>
          3 17 11 3 3.</_></rects>
      <tilted>0</tilted></_>
    <_>
      <rects>
        <_>
          3 17 12 6 -1.</_>
        <_>
          3 17 6 3 2.</_>
        <_>
          9 20 6 3 2.</_></rects>
      <tilted>0</tilted></_>
    <_>
      <rects>
        <_>
          3 19 3 5 -1.</_>
        <_>
          4 19 1 5 3.</_></rects>
      <tilted>0</tilted></_>
    <_>
      <rects>
        <_>
          4 0 15 9 -1.</_>
        <_>
          4 3 15 3 3.</_></rects>
      <tilted>0</tilted></_>
    <_>
      <rects>
        <_>
          4 0 16 6 -1.</_>
        <_>
          4 2 16 2 3.</_></rects>
      <tilted>0</tilted></_>
    <_>
      <rects>
        <_>
          4 1 13 3 -1.</_>
        <_>
          4 2 13 1 3.</_></rects>
      <tilted>0</tilted></_>
    <_>
      <rects>
        <_>
          4 10 20 2 -1.</_>
        <_>
          4 11 20 1 2.</_></rects>
      <tilted>0</tilted></_>
    <_>
      <rects>
        <_>
          5 0 15 2 -1.</_>
        <_>
          5 1 15 1 2.</_></rects>
      <tilted>0</tilted></_>
    <_>
      <rects>
        <_>
          5 6 6 6 -1.</_>
        <_>
          7 6 2 6 3.</_></rects>
      <tilted>0</tilted></_>
    <_>
      <rects>
        <_>
          5 6 15 4 -1.</_>
        <_>
          10 6 5 4 3.</_></rects>
      <tilted>0</tilted></_>
    <_>
      <rects>
        <_>
          5 6 12 6 -1.</_>
        <_>
          5 8 12 2 3.</_></rects>
      <tilted>0</tilted></_>
    <_>
      <rects>
        <_>
          5 8 12 2 -1.</_>
        <_>
          9 8 4 2 3.</_></rects>
      <tilted>0</tilted></_>
    <_>
      <rects>
        <_>
          6 0 13 9 -1.</_>
        <_>
          6 3 13 3 3.</_></rects>
      <tilted>0</tilted></_>
    <_>
      <rects>
        <_>
          6 7 1 12 -1.</_>
        <_>
          6 11 1 4 3.</_></rects>
      <tilted>0</tilted></_>
    <_>
      <rects>
        <_>
          7 5 7 4 -1.</_>
        <_>
          7 7 7 2 2.</_></rects>
      <tilted>0</tilted></_>
    <_>
      <rects>
        <_>
          7 7 9 5 -1.</_>
        <_>
          10 7 3 5 3.</_></rects>
      <tilted>0</tilted></_>
    <_>
      <rects>
        <_>
          7 12 15 12 -1.</_>
        <_>
          7 18 15 6 2.</_></rects>
      <tilted>0</tilted></_>
    <_>
      <rects>
        <_>
          8 0 2 9 -1.</_>
        <_>
          8 3 2 3 3.</_></rects>
      <tilted>0</tilted></_>
    <_>
      <rects>
        <_>
          8 2 3 7 -1.</_>
        <_>
          9 2 1 7 3.</_></rects>
      <tilted>0</tilted></_>
    <_>
      <rects>
        <_>
          8 2 15 6 -1.</_>
        <_>
          8 4 15 2 3.</_></rects>
      <tilted>0</tilted></_>
    <_>
      <rects>
        <_>
          8 3 3 4 -1.</_>
        <_>
          9 3 1 4 3.</_></rects>
      <tilted>0</tilted></_>
    <_>
      <rects>
        <_>
          8 7 16 12 -1.</_>
        <_>
          8 7 8 6 2.</_>
        <_>
          16 13 8 6 2.</_></rects>
      <tilted>0</tilted></_>
    <_>
      <rects>
        <_>
          8 15 11 8 -1.</_>
        <_>
          8 19 11 4 2.</_></rects>
      <tilted>0</tilted></_>
    <_>
      <rects>
        <_>
          8 18 16 4 -1.</_>
        <_>
          8 20 16 2 2.</_></rects>
      <tilted>0</tilted></_>
    <_>
      <rects>
        <_>
          8 20 11 4 -1.</_>
        <_>
          8 22 11 2 2.</_></rects>
      <tilted>0</tilted></_>
    <_>
      <rects>
        <_>
          8 21 9 2 -1.</_>
        <_>
          8 22 9 1 2.</_></rects>
      <tilted>0</tilted></_>
    <_>
      <rects>
        <_>
          10 0 3 5 -1.</_>
        <_>
          11 0 1 5 3.</_></rects>
      <tilted>0</tilted></_>
    <_>
      <rects>
        <_>
          10 15 1 2 -1.</_>
        <_>
          10 16 1 1 2.</_></rects>
      <tilted>0</tilted></_>
    <_>
      <rects>
        <_>
          10 15 6 2 -1.</_>
        <_>
          10 16 6 1 2.</_></rects>
      <tilted>0</tilted></_>
    <_>
      <rects>
        <_>
          11 7 6 6 -1.</_>
        <_>
          13 7 2 6 3.</_></rects>
      <tilted>0</tilted></_>
    <_>
      <rects>
        <_>
          11 20 3 4 -1.</_>
        <_>
          12 20 1 4 3.</_></rects>
      <tilted>0</tilted></_>
    <_>
      <rects>
        <_>
          12 0 3 6 -1.</_>
        <_>
          13 0 1 6 3.</_></rects>
      <tilted>0</tilted></_>
    <_>
      <rects>
        <_>
          12 7 6 6 -1.</_>
        <_>
          12 7 3 3 2.</_>
        <_>
          15 10 3 3 2.</_></rects>
      <tilted>0</tilted></_>
    <_>
      <rects>
        <_>
          12 17 10 6 -1.</_>
        <_>
          12 17 5 3 2.</_>
        <_>
          17 20 5 3 2.</_></rects>
      <tilted>0</tilted></_>
    <_>
      <rects>
        <_>
          12 20 3 4 -1.</_>
        <_>
          13 20 1 4 3.</_></rects>
      <tilted>0</tilted></_>
    <_>
      <rects>
        <_>
          12 21 1 3 -1.</_>
        <_>
          12 22 1 1 3.</_></rects>
      <tilted>0</tilted></_>
    <_>
      <rects>
        <_>
          13 18 5 6 -1.</_>
        <_>
          13 20 5 2 3.</_></rects>
      <tilted>0</tilted></_>
    <_>
      <rects>
        <_>
          14 1 10 8 -1.</_>
        <_>
          19 1 5 8 2.</_></rects>
      <tilted>0</tilted></_>
    <_>
      <rects>
        <_>
          14 3 3 1 -1.</_>
        <_>
          15 3 1 1 3.</_></rects>
      <tilted>0</tilted></_>
    <_>
      <rects>
        <_>
          15 3 1 2 -1.</_>
        <_>
          15 4 1 1 2.</_></rects>
      <tilted>0</tilted></_>
    <_>
      <rects>
        <_>
          15 19 4 4 -1.</_>
        <_>
          15 19 2 2 2.</_>
        <_>
          17 21 2 2 2.</_></rects>
      <tilted>0</tilted></_>
    <_>
      <rects>
        <_>
          15 19 8 4 -1.</_>
        <_>
          19 19 4 4 2.</_></rects>
      <tilted>0</tilted></_>
    <_>
      <rects>
        <_>
          16 1 8 6 -1.</_>
        <_>
          20 1 4 6 2.</_></rects>
      <tilted>0</tilted></_>
    <_>
      <rects>
        <_>
          17 2 2 1 -1.</_>
        <_>
          18 2 1 1 2.</_></rects>
      <tilted>0</tilted></_>
    <_>
      <rects>
        <_>
          17 2 3 6 -1.</_>
        <_>
          18 2 1 6 3.</_></rects>
      <tilted>0</tilted></_>
    <_>
      <rects>
        <_>
          18 0 6 22 -1.</_>
        <_>
          21 0 3 22 2.</_></rects>
      <tilted>0</tilted></_>
    <_>
      <rects>
        <_>
          19 9 2 10 -1.</_>
        <_>
          19 9 1 5 2.</_>
        <_>
          20 14 1 5 2.</_></rects>
      <tilted>0</tilted></_>
    <_>
      <rects>
        <_>
          20 3 2 4 -1.</_>
        <_>
          21 3 1 4 2.</_></rects>
      <tilted>0</tilted></_>
    <_>
      <rects>
        <_>
          20 3 4 17 -1.</_>
        <_>
          22 3 2 17 2.</_></rects>
      <tilted>0</tilted></_>
    <_>
      <rects>
        <_>
          21 0 2 4 -1.</_>
        <_>
          21 0 1 2 2.</_>
        <_>
          22 2 1 2 2.</_></rects>
      <tilted>0</tilted></_>
    <_>
      <rects>
        <_>
          21 1 2 15 -1.</_>
        <_>
          22 1 1 15 2.</_></rects>
      <tilted>0</tilted></_>
    <_>
      <rects>
        <_>
          21 2 1 21 -1.</_>
        <_>
          21 9 1 7 3.</_></rects>
      <tilted>0</tilted></_>
    <_>
      <rects>
        <_>
          21 7 3 12 -1.</_>
        <_>
          22 7 1 12 3.</_></rects>
      <tilted>0</tilted></_>
    <_>
      <rects>
        <_>
          21 15 3 4 -1.</_>
        <_>
          22 15 1 4 3.</_></rects>
      <tilted>0</tilted></_>
    <_>
      <rects>
        <_>
          22 10 2 11 -1.</_>
        <_>
          23 10 1 11 2.</_></rects>
      <tilted>0</tilted></_>
    <_>
      <rects>
        <_>
          22 11 2 8 -1.</_>
        <_>
          23 11 1 8 2.</_></rects>
      <tilted>0</tilted></_>
    <_>
      <rects>
        <_>
          22 12 1 3 -1.</_>
        <_>
          22 13 1 1 3.</_></rects>
      <tilted>0</tilted></_></features></cascade>
</opencv_storage>
