<?xml version="1.0"?>
<opencv_storage>
<stage6>
  <maxWeakCount>6</maxWeakCount>
  <stageThreshold>-1.8040021657943726e+00</stageThreshold>
  <weakClassifiers>
    <_>
      <internalNodes>
        0 -1 37840 3.7891149520874023e-02</internalNodes>
      <leafValues>
        -8.8223940134048462e-01 7.4074074625968933e-02</leafValues></_>
    <_>
      <internalNodes>
        0 -1 20385 1.4210270717740059e-02</internalNodes>
      <leafValues>
        -6.5148061513900757e-01 2.7172014117240906e-01</leafValues></_>
    <_>
      <internalNodes>
        0 -1 158114 -5.2938034059479833e-04</internalNodes>
      <leafValues>
        2.7802217006683350e-01 -7.0933079719543457e-01</leafValues></_>
    <_>
      <internalNodes>
        0 -1 87889 -2.0080719143152237e-02</internalNodes>
      <leafValues>
        2.6161453127861023e-01 -8.6943131685256958e-01</leafValues></_>
    <_>
      <internalNodes>
        0 -1 143849 -2.3423561360687017e-03</internalNodes>
      <leafValues>
        5.2765071392059326e-01 -4.2809540033340454e-01</leafValues></_>
    <_>
      <internalNodes>
        0 -1 159741 -1.8609503749758005e-03</internalNodes>
      <leafValues>
        6.0552948713302612e-01 -3.2361298799514771e-01</leafValues></_></weakClassifiers></stage6>
</opencv_storage>
