<?xml version="1.0"?>
<opencv_storage>
<stage12>
  <maxWeakCount>8</maxWeakCount>
  <stageThreshold>-1.7021619081497192e+00</stageThreshold>
  <weakClassifiers>
    <_>
      <internalNodes>
        0 -1 143879 -4.0895611047744751e-02</internalNodes>
      <leafValues>
        -3.6956521868705750e-01 -8.7775552272796631e-01</leafValues></_>
    <_>
      <internalNodes>
        0 -1 3497 6.8313412368297577e-02</internalNodes>
      <leafValues>
        -6.2477552890777588e-01 3.3287983387708664e-02</leafValues></_>
    <_>
      <internalNodes>
        0 -1 159996 1.7437266185879707e-02</internalNodes>
      <leafValues>
        -3.8651993870735168e-01 3.0787813663482666e-01</leafValues></_>
    <_>
      <internalNodes>
        0 -1 91906 1.4616595581173897e-03</internalNodes>
      <leafValues>
        1.3005749881267548e-01 -8.8961416482925415e-01</leafValues></_>
    <_>
      <internalNodes>
        0 -1 65001 -1.3501564972102642e-03</internalNodes>
      <leafValues>
        3.2574027776718140e-01 -3.5577282309532166e-01</leafValues></_>
    <_>
      <internalNodes>
        0 -1 85402 -1.1141519062221050e-02</internalNodes>
      <leafValues>
        4.6393427252769470e-01 -2.5928741693496704e-01</leafValues></_>
    <_>
      <internalNodes>
        0 -1 45163 1.5131791122257710e-02</internalNodes>
      <leafValues>
        -2.1131262183189392e-01 6.2922650575637817e-01</leafValues></_>
    <_>
      <internalNodes>
        0 -1 3342 -2.3631840012967587e-03</internalNodes>
      <leafValues>
        -8.4853827953338623e-01 2.0169128477573395e-01</leafValues></_></weakClassifiers></stage12>
</opencv_storage>
